net
{
    node_size = (80 40);
    HR_realname_AML = "AML";
    HR_realname_MDS1 = "MDS1";
    HR_realname_MDK = "MDK";
    HR_realname_PCCB = "PCCB";
    HR_realname_ATP2B4 = "ATP2B4";
    HR_realname_NAP1L1 = "NAP1L1";
    HR_Has_Constraints = "yes";
    HR_DBN_Num_Slices = "5";
    HR_Desc = "";
    HR_OOBN_CheckConsistency = "1";
    HR_OOBN_FitExpand = "1";
    HR_Zoom_ZoomFactor = "100";
    HR_Groups_GroupColors = "";
    HR_Groups_GroupNames = "";
    HR_Groups_UserGroupsNo = "0";
    HR_Utility_Link = "63";
    HR_Probabilistic_Link = "63";
    HR_Functional_Link = "63";
    HR_Binding_Link = "63";
    HR_Information_Arc = "63";
    HR_Color_Interface = "21";
    HR_Color_Instance = "0";
    HR_Color_DiscreteFunction = "5";
    HR_Color_Function = "4";
    HR_Color_Utility = "36";
    HR_Color_Decision = "17";
    HR_Color_ContinuousChance = "48";
    HR_Color_DiscreteChance = "16";
    HR_Monitor_InitSD = "2";
    HR_Monitor_Utility_Arrange = "0";
    HR_Monitor_Mean_Variance = "1";
    HR_Monitor_Chance_Utility = "1";
    HR_Monitor_InitStates = "5";
    HR_Monitor_OpenGraph = "0";
    HR_Monitor_GraphPrecision = "100";
    HR_Monitor_AutoUpdGraph = "0";
    HR_Compile_MaxMinimalSeparators = "100000";
    HR_Compile_ApproxEpsilon = "1.0E-5";
    HR_Compile_Approximate = "0";
    HR_Compile_SaveToMemory = "0";
    HR_Compile_Compress = "0";
    HR_Compile_TriangMethod = "0";
    HR_Propagate_AutoNormal = "1";
    HR_Propagate_AutoSum = "1";
    HR_Propagate_Auto = "1";
    HR_Font_Italic = "0";
    HR_Font_Weight = "400";
    HR_Font_Size = "-12";
    HR_Font_Name = "javax.swing.plaf.FontUIResource[family=Dialog,name=Dialog,style=bold,size=12]";
    HR_Grid_GridShow = "0";
    HR_Grid_GridSnap = "0";
    HR_Grid_Y = "40";
    HR_Grid_X = "40";
}

node NAP1L1
{
    position = (114 210);
    states = ("no" "yes");
    HR_LinkGroup = "[AML:0][ATP2B4:0][PCCB:0][MDK:0][MDS1:0]";
    HR_LinkMode = "[AML:0][ATP2B4:0][PCCB:0][MDK:0][MDS1:0]";
}

node ATP2B4
{
    position = (232 196);
    states = ("no" "yes");
    HR_LinkGroup = "[PCCB:0][MDK:0][MDS1:0][AML:0]";
    HR_LinkMode = "[PCCB:0][MDK:0][MDS1:0][AML:0]";
}

node PCCB
{
    position = (62 142);
    states = ("yes" "no");
    HR_LinkGroup = "[ATP2B4:0][MDK:0][MDS1:0][AML:0]";
    HR_LinkMode = "[ATP2B4:0][MDK:0][MDS1:0][AML:0]";
}

node MDK
{
    position = (304 128);
    states = ("no" "yes");
    HR_LinkGroup = "[MDS1:0][AML:0]";
    HR_LinkMode = "[MDS1:0][AML:0]";
}

node MDS1
{
    position = (50 70);
    states = ("yes" "no");
    HR_LinkGroup = "[AML:0]";
    HR_LinkMode = "[AML:0]";
}

node AML
{
    position = (210 50);
    states = ("yes" "no");
    HR_LinkGroup = "[ATP2B4:0][PCCB:0][MDS1:0][MDK:0]";
    HR_LinkMode = "[ATP2B4:0][PCCB:0][MDS1:0][MDK:0]";
}

potential (NAP1L1)
{
    data = ( 0.784483 0.215517 );
    experience = 58;
}

potential (ATP2B4 | AML PCCB)
{
    data
     = ((( 0.928571 0.0714286 )	%  AML=yes  PCCB=yes
	 ( 0.5 0.5 ))	%  AML=yes  PCCB=no
	(( 0.553571 0.446429 )	%  AML=no  PCCB=yes
	 ( 0.954545 0.0454545 )));	%  AML=no  PCCB=no
    experience
     = (( 21	%  AML=yes  PCCB=yes
	  1 )	%  AML=yes  PCCB=no
	( 28	%  AML=no  PCCB=yes
	  11 ));	%  AML=no  PCCB=no
}

potential (PCCB | AML)
{
    data
     = (( 0.97619 0.0238095 )	%  AML=yes
	( 0.723684 0.276316 ));	%  AML=no
    experience
     = ( 21	%  AML=yes
	 38 );	%  AML=no
}

potential (MDK | AML)
{
    data
     = (( 0.97619 0.0238095 )	%  AML=yes
	( 0.618421 0.381579 ));	%  AML=no
    experience
     = ( 21	%  AML=yes
	 38 );	%  AML=no
}

potential (MDS1 | AML)
{
    data
     = (( 0.97619 0.0238095 )	%  AML=yes
	( 0.644737 0.355263 ));	%  AML=no
    experience
     = ( 21	%  AML=yes
	 38 );	%  AML=no
}

potential (AML | NAP1L1)
{
    data
     = (( 0.445652 0.554348 )	%  NAP1L1=no
	( 0.0384615 0.961538 ));	%  NAP1L1=yes
    experience
     = ( 46	%  NAP1L1=no
	 13 );	%  NAP1L1=yes
}
